<?xml version="1.0"?>
<opencv_storage>
<cascade>
  <stageType>BOOST</stageType>
  <featureType>HAAR</featureType>
  <height>30</height>
  <width>24</width>
  <stageParams>
    <boostType>GAB</boostType>
    <minHitRate>9.9500000476837158e-01</minHitRate>
    <maxFalseAlarm>5.0000000000000000e-01</maxFalseAlarm>
    <weightTrimRate>9.4999998807907104e-01</weightTrimRate>
    <maxDepth>1</maxDepth>
    <maxWeakCount>100</maxWeakCount></stageParams>
  <featureParams>
    <maxCatCount>0</maxCatCount>
    <featSize>1</featSize>
    <mode>BASIC</mode></featureParams>
  <stageNum>14</stageNum>
  <stages>
    <!-- stage 0 -->
    <_>
      <maxWeakCount>3</maxWeakCount>
      <stageThreshold>-1.2528146505355835e+00</stageThreshold>
      <weakClassifiers>
        <_>
          <internalNodes>
            0 -1 72 -3.1751652713865042e-03</internalNodes>
          <leafValues>
            6.7346936464309692e-01 -8.8593155145645142e-01</leafValues></_>
        <_>
          <internalNodes>
            0 -1 3 -1.3123514130711555e-02</internalNodes>
          <leafValues>
            5.6047666072845459e-01 -8.0545800924301147e-01</leafValues></_>
        <_>
          <internalNodes>
            0 -1 31 6.3492029905319214e-02</internalNodes>
          <leafValues>
            -1. 4.3857485055923462e-01</leafValues></_></weakClassifiers></_>
    <!-- stage 1 -->
    <_>
      <maxWeakCount>4</maxWeakCount>
      <stageThreshold>-1.7063826322555542e+00</stageThreshold>
      <weakClassifiers>
        <_>
          <internalNodes>
            0 -1 57 4.6549206599593163e-03</internalNodes>
          <leafValues>
            -8.8952380418777466e-01 6.8627452850341797e-01</leafValues></_>
        <_>
          <internalNodes>
            0 -1 53 -3.7029709201306105e-03</internalNodes>
          <leafValues>
            3.6697000265121460e-01 -7.8569954633712769e-01</leafValues></_>
        <_>
          <internalNodes>
            0 -1 62 -4.7761291265487671e-02</internalNodes>
          <leafValues>
            5.3091728687286377e-01 -6.7784094810485840e-01</leafValues></_>
        <_>
          <internalNodes>
            0 -1 59 -1.8124144989997149e-03</internalNodes>
          <leafValues>
            7.8949010372161865e-01 -5.0598788261413574e-01</leafValues></_></weakClassifiers></_>
    <!-- stage 2 -->
    <_>
      <maxWeakCount>5</maxWeakCount>
      <stageThreshold>-1.7493280172348022e+00</stageThreshold>
      <weakClassifiers>
        <_>
          <internalNodes>
            0 -1 65 -1.0390950366854668e-02</internalNodes>
          <leafValues>
            1. -8.6393290758132935e-01</leafValues></_>
        <_>
          <internalNodes>
            0 -1 36 7.8079300001263618e-03</internalNodes>
          <leafValues>
            -6.3309013843536377e-01 6.0816645622253418e-01</leafValues></_>
        <_>
          <internalNodes>
            0 -1 51 -4.4563170522451401e-03</internalNodes>
          <leafValues>
            7.8681480884552002e-01 -4.0292090177536011e-01</leafValues></_>
        <_>
          <internalNodes>
            0 -1 1 -4.3802135623991489e-03</internalNodes>
          <leafValues>
            5.6289565563201904e-01 -5.2459990978240967e-01</leafValues></_>
        <_>
          <internalNodes>
            0 -1 67 -1.8439762061461806e-03</internalNodes>
          <leafValues>
            6.8207615613937378e-01 -4.1227975487709045e-01</leafValues></_></weakClassifiers></_>
    <!-- stage 3 -->
    <_>
      <maxWeakCount>4</maxWeakCount>
      <stageThreshold>-1.5745902061462402e+00</stageThreshold>
      <weakClassifiers>
        <_>
          <internalNodes>
            0 -1 10 -1.4268729090690613e-01</internalNodes>
          <leafValues>
            1.5217390656471252e-01 -9.0485626459121704e-01</leafValues></_>
        <_>
          <internalNodes>
            0 -1 44 -6.9324614014476538e-04</internalNodes>
          <leafValues>
            4.3712675571441650e-01 -6.7851662635803223e-01</leafValues></_>
        <_>
          <internalNodes>
            0 -1 49 4.2362846434116364e-03</internalNodes>
          <leafValues>
            -4.3131858110427856e-01 7.0829164981842041e-01</leafValues></_>
        <_>
          <internalNodes>
            0 -1 28 -9.4421058893203735e-03</internalNodes>
          <leafValues>
            4.4420364499092102e-01 -6.1692893505096436e-01</leafValues></_></weakClassifiers></_>
    <!-- stage 4 -->
    <_>
      <maxWeakCount>6</maxWeakCount>
      <stageThreshold>-1.8260164260864258e+00</stageThreshold>
      <weakClassifiers>
        <_>
          <internalNodes>
            0 -1 60 3.7461128085851669e-03</internalNodes>
          <leafValues>
            -8.8349515199661255e-01 1.5492957830429077e-01</leafValues></_>
        <_>
          <internalNodes>
            0 -1 3 -1.3254245743155479e-02</internalNodes>
          <leafValues>
            2.0872044563293457e-01 -7.6771664619445801e-01</leafValues></_>
        <_>
          <internalNodes>
            0 -1 25 1.4111384749412537e-01</internalNodes>
          <leafValues>
            -7.8542840480804443e-01 2.5329515337944031e-01</leafValues></_>
        <_>
          <internalNodes>
            0 -1 27 1.9687488675117493e-03</internalNodes>
          <leafValues>
            -3.4659087657928467e-01 7.3435753583908081e-01</leafValues></_>
        <_>
          <internalNodes>
            0 -1 79 4.6002995222806931e-03</internalNodes>
          <leafValues>
            -3.6604511737823486e-01 5.5973279476165771e-01</leafValues></_>
        <_>
          <internalNodes>
            0 -1 24 -1.6731407959014177e-03</internalNodes>
          <leafValues>
            3.4682264924049377e-01 -7.2007590532302856e-01</leafValues></_></weakClassifiers></_>
    <!-- stage 5 -->
    <_>
      <maxWeakCount>7</maxWeakCount>
      <stageThreshold>-1.5718308687210083e+00</stageThreshold>
      <weakClassifiers>
        <_>
          <internalNodes>
            0 -1 39 1.6033530235290527e-02</internalNodes>
          <leafValues>
            -8.5013878345489502e-01 1.</leafValues></_>
        <_>
          <internalNodes>
            0 -1 42 -3.2578519312664866e-04</internalNodes>
          <leafValues>
            1.4165775477886200e-01 -7.3505342006683350e-01</leafValues></_>
        <_>
          <internalNodes>
            0 -1 8 -2.1799851674586535e-04</internalNodes>
          <leafValues>
            2.4461470544338226e-01 -7.1156489849090576e-01</leafValues></_>
        <_>
          <internalNodes>
            0 -1 63 -1.3469528639689088e-03</internalNodes>
          <leafValues>
            6.3879823684692383e-01 -3.4279787540435791e-01</leafValues></_>
        <_>
          <internalNodes>
            0 -1 26 4.5540593564510345e-03</internalNodes>
          <leafValues>
            -6.3363105058670044e-01 3.3206370472908020e-01</leafValues></_>
        <_>
          <internalNodes>
            0 -1 47 -7.2241369634866714e-03</internalNodes>
          <leafValues>
            -1. 2.1699245274066925e-01</leafValues></_>
        <_>
          <internalNodes>
            0 -1 43 -3.1580862123519182e-03</internalNodes>
          <leafValues>
            7.2086018323898315e-01 -3.4852805733680725e-01</leafValues></_></weakClassifiers></_>
    <!-- stage 6 -->
    <_>
      <maxWeakCount>7</maxWeakCount>
      <stageThreshold>-2.0828592777252197e+00</stageThreshold>
      <weakClassifiers>
        <_>
          <internalNodes>
            0 -1 46 -7.2533013299107552e-03</internalNodes>
          <leafValues>
            6.5517240762710571e-01 -8.5634326934814453e-01</leafValues></_>
        <_>
          <internalNodes>
            0 -1 77 1.4536181464791298e-02</internalNodes>
          <leafValues>
            -6.8843412399291992e-01 2.4446047842502594e-01</leafValues></_>
        <_>
          <internalNodes>
            0 -1 48 8.1850006245076656e-04</internalNodes>
          <leafValues>
            -3.6119821667671204e-01 6.5181922912597656e-01</leafValues></_>
        <_>
          <internalNodes>
            0 -1 69 7.2927656583487988e-04</internalNodes>
          <leafValues>
            -3.1886261701583862e-01 6.4198565483093262e-01</leafValues></_>
        <_>
          <internalNodes>
            0 -1 6 -3.9304211735725403e-02</internalNodes>
          <leafValues>
            -8.1502997875213623e-01 2.7151739597320557e-01</leafValues></_>
        <_>
          <internalNodes>
            0 -1 76 -7.8316160943359137e-04</internalNodes>
          <leafValues>
            4.0266516804695129e-01 -4.5794567465782166e-01</leafValues></_>
        <_>
          <internalNodes>
            0 -1 64 2.4364925920963287e-03</internalNodes>
          <leafValues>
            -4.0650457143783569e-01 5.2272874116897583e-01</leafValues></_></weakClassifiers></_>
    <!-- stage 7 -->
    <_>
      <maxWeakCount>8</maxWeakCount>
      <stageThreshold>-2.0017201900482178e+00</stageThreshold>
      <weakClassifiers>
        <_>
          <internalNodes>
            0 -1 37 3.5258509218692780e-02</internalNodes>
          <leafValues>
            -8.5847300291061401e-01 8.5185188055038452e-01</leafValues></_>
        <_>
          <internalNodes>
            0 -1 5 -3.8052856922149658e-02</internalNodes>
          <leafValues>
            4.3989423662424088e-02 -7.0344448089599609e-01</leafValues></_>
        <_>
          <internalNodes>
            0 -1 20 6.1670746654272079e-03</internalNodes>
          <leafValues>
            -3.2624688744544983e-01 6.4267432689666748e-01</leafValues></_>
        <_>
          <internalNodes>
            0 -1 40 -1.3766593765467405e-03</internalNodes>
          <leafValues>
            3.0002316832542419e-01 -6.3675749301910400e-01</leafValues></_>
        <_>
          <internalNodes>
            0 -1 45 -3.2400660216808319e-02</internalNodes>
          <leafValues>
            2.9536691308021545e-01 -6.0810416936874390e-01</leafValues></_>
        <_>
          <internalNodes>
            0 -1 66 -3.4515991806983948e-02</internalNodes>
          <leafValues>
            -8.7230592966079712e-01 1.9608168303966522e-01</leafValues></_>
        <_>
          <internalNodes>
            0 -1 15 2.4010962806642056e-03</internalNodes>
          <leafValues>
            -3.2659241557121277e-01 5.3367513418197632e-01</leafValues></_>
        <_>
          <internalNodes>
            0 -1 7 -2.4972905521281064e-05</internalNodes>
          <leafValues>
            3.2503601908683777e-01 -5.0345301628112793e-01</leafValues></_></weakClassifiers></_>
    <!-- stage 8 -->
    <_>
      <maxWeakCount>7</maxWeakCount>
      <stageThreshold>-1.6537891626358032e+00</stageThreshold>
      <weakClassifiers>
        <_>
          <internalNodes>
            0 -1 65 -1.3003075495362282e-02</internalNodes>
          <leafValues>
            6.4285713434219360e-01 -8.5461324453353882e-01</leafValues></_>
        <_>
          <internalNodes>
            0 -1 68 2.1686146501451731e-03</internalNodes>
          <leafValues>
            -5.5574566125869751e-01 4.9852624535560608e-01</leafValues></_>
        <_>
          <internalNodes>
            0 -1 34 -3.7488746456801891e-03</internalNodes>
          <leafValues>
            1.9815187156200409e-01 -7.5998425483703613e-01</leafValues></_>
        <_>
          <internalNodes>
            0 -1 32 2.8944958001375198e-02</internalNodes>
          <leafValues>
            1.4578862488269806e-01 -9.0481990575790405e-01</leafValues></_>
        <_>
          <internalNodes>
            0 -1 71 4.6676686033606529e-03</internalNodes>
          <leafValues>
            -7.6552283763885498e-01 1.8506026268005371e-01</leafValues></_>
        <_>
          <internalNodes>
            0 -1 30 1.3024023175239563e-01</internalNodes>
          <leafValues>
            1.5083374083042145e-01 -1.</leafValues></_>
        <_>
          <internalNodes>
            0 -1 54 1.2006678618490696e-02</internalNodes>
          <leafValues>
            -9.6315097808837891e-01 1.2734375894069672e-01</leafValues></_></weakClassifiers></_>
    <!-- stage 9 -->
    <_>
      <maxWeakCount>6</maxWeakCount>
      <stageThreshold>-1.5248190164566040e+00</stageThreshold>
      <weakClassifiers>
        <_>
          <internalNodes>
            0 -1 4 -9.3857720494270325e-02</internalNodes>
          <leafValues>
            1.7857143282890320e-01 -8.6985647678375244e-01</leafValues></_>
        <_>
          <internalNodes>
            0 -1 52 -1.9959346391260624e-03</internalNodes>
          <leafValues>
            3.4646087884902954e-01 -5.9176981449127197e-01</leafValues></_>
        <_>
          <internalNodes>
            0 -1 0 -9.3140797689557076e-03</internalNodes>
          <leafValues>
            2.5148832798004150e-01 -6.5752828121185303e-01</leafValues></_>
        <_>
          <internalNodes>
            0 -1 41 -1.3335875701159239e-04</internalNodes>
          <leafValues>
            2.7233362197875977e-01 -5.9402519464492798e-01</leafValues></_>
        <_>
          <internalNodes>
            0 -1 38 -4.0516465902328491e-02</internalNodes>
          <leafValues>
            -8.1346565485000610e-01 2.2513259947299957e-01</leafValues></_>
        <_>
          <internalNodes>
            0 -1 19 -2.0802078768610954e-02</internalNodes>
          <leafValues>
            -7.7248436212539673e-01 1.9723689556121826e-01</leafValues></_></weakClassifiers></_>
    <!-- stage 10 -->
    <_>
      <maxWeakCount>7</maxWeakCount>
      <stageThreshold>-1.7615909576416016e+00</stageThreshold>
      <weakClassifiers>
        <_>
          <internalNodes>
            0 -1 2 -2.4555471539497375e-01</internalNodes>
          <leafValues>
            4.8571428656578064e-01 -8.5928708314895630e-01</leafValues></_>
        <_>
          <internalNodes>
            0 -1 35 1.3796833809465170e-03</internalNodes>
          <leafValues>
            -5.5010390281677246e-01 4.3703967332839966e-01</leafValues></_>
        <_>
          <internalNodes>
            0 -1 29 1.8401458859443665e-02</internalNodes>
          <leafValues>
            -6.4870476722717285e-01 2.8054094314575195e-01</leafValues></_>
        <_>
          <internalNodes>
            0 -1 56 -2.4538191501051188e-03</internalNodes>
          <leafValues>
            7.0119297504425049e-01 -2.7847036719322205e-01</leafValues></_>
        <_>
          <internalNodes>
            0 -1 12 4.5771237462759018e-02</internalNodes>
          <leafValues>
            2.5099414587020874e-01 -6.8909102678298950e-01</leafValues></_>
        <_>
          <internalNodes>
            0 -1 58 3.8787610828876495e-02</internalNodes>
          <leafValues>
            1.8379843235015869e-01 -8.5265743732452393e-01</leafValues></_>
        <_>
          <internalNodes>
            0 -1 14 -1.9102387130260468e-02</internalNodes>
          <leafValues>
            -8.1121879816055298e-01 1.8949481844902039e-01</leafValues></_></weakClassifiers></_>
    <!-- stage 11 -->
    <_>
      <maxWeakCount>6</maxWeakCount>
      <stageThreshold>-1.3578858375549316e+00</stageThreshold>
      <weakClassifiers>
        <_>
          <internalNodes>
            0 -1 9 -1.8989524245262146e-01</internalNodes>
          <leafValues>
            5.8974361419677734e-01 -8.6817324161529541e-01</leafValues></_>
        <_>
          <internalNodes>
            0 -1 33 -1.1835988610982895e-02</internalNodes>
          <leafValues>
            5.8098834753036499e-01 -5.4035532474517822e-01</leafValues></_>
        <_>
          <internalNodes>
            0 -1 55 -1.4449292793869972e-03</internalNodes>
          <leafValues>
            5.7680505514144897e-01 -3.6512157320976257e-01</leafValues></_>
        <_>
          <internalNodes>
            0 -1 13 -2.9535878449678421e-02</internalNodes>
          <leafValues>
            -7.0165914297103882e-01 2.8523141145706177e-01</leafValues></_>
        <_>
          <internalNodes>
            0 -1 11 -2.8097941540181637e-03</internalNodes>
          <leafValues>
            4.0168389678001404e-01 -4.6936169266700745e-01</leafValues></_>
        <_>
          <internalNodes>
            0 -1 74 2.0864454563707113e-03</internalNodes>
          <leafValues>
            -2.2618709504604340e-01 8.5022354125976563e-01</leafValues></_></weakClassifiers></_>
    <!-- stage 12 -->
    <_>
      <maxWeakCount>8</maxWeakCount>
      <stageThreshold>-1.8109815120697021e+00</stageThreshold>
      <weakClassifiers>
        <_>
          <internalNodes>
            0 -1 73 1.2921605259180069e-02</internalNodes>
          <leafValues>
            -8.6915886402130127e-01 1.</leafValues></_>
        <_>
          <internalNodes>
            0 -1 23 -5.0500083714723587e-02</internalNodes>
          <leafValues>
            7.2153979539871216e-01 -5.8481752872467041e-01</leafValues></_>
        <_>
          <internalNodes>
            0 -1 22 1.0990899056196213e-02</internalNodes>
          <leafValues>
            -2.4300768971443176e-01 8.3126670122146606e-01</leafValues></_>
        <_>
          <internalNodes>
            0 -1 17 8.9419055730104446e-03</internalNodes>
          <leafValues>
            -2.9599022865295410e-01 6.8736773729324341e-01</leafValues></_>
        <_>
          <internalNodes>
            0 -1 61 -1.3113183900713921e-02</internalNodes>
          <leafValues>
            3.7711679935455322e-01 -6.1514014005661011e-01</leafValues></_>
        <_>
          <internalNodes>
            0 -1 21 8.0996900796890259e-03</internalNodes>
          <leafValues>
            -2.9103589057922363e-01 7.3460853099822998e-01</leafValues></_>
        <_>
          <internalNodes>
            0 -1 70 -4.2166106868535280e-04</internalNodes>
          <leafValues>
            5.5826932191848755e-01 -4.1392934322357178e-01</leafValues></_>
        <_>
          <internalNodes>
            0 -1 78 2.7942119049839675e-04</internalNodes>
          <leafValues>
            5.0984126329421997e-01 -4.4364267587661743e-01</leafValues></_></weakClassifiers></_>
    <!-- stage 13 -->
    <_>
      <maxWeakCount>4</maxWeakCount>
      <stageThreshold>-1.5277650356292725e+00</stageThreshold>
      <weakClassifiers>
        <_>
          <internalNodes>
            0 -1 16 -6.3621163368225098e-02</internalNodes>
          <leafValues>
            1. -8.9393937587738037e-01</leafValues></_>
        <_>
          <internalNodes>
            0 -1 18 -4.3063838034868240e-02</internalNodes>
          <leafValues>
            7.5196707248687744e-01 -6.9013673067092896e-01</leafValues></_>
        <_>
          <internalNodes>
            0 -1 75 -1.3194818166084588e-05</internalNodes>
          <leafValues>
            5.7501196861267090e-01 -5.4892557859420776e-01</leafValues></_>
        <_>
          <internalNodes>
            0 -1 50 2.7659249026328325e-03</internalNodes>
          <leafValues>
            -5.0083452463150024e-01 6.0523658990859985e-01</leafValues></_></weakClassifiers></_></stages>
  <features>
    <_>
      <rects>
        <_>
          0 0 23 4 -1.</_>
        <_>
          0 2 23 2 2.</_></rects>
      <tilted>0</tilted></_>
    <_>
      <rects>
        <_>
          0 0 24 2 -1.</_>
        <_>
          0 1 24 1 2.</_></rects>
      <tilted>0</tilted></_>
    <_>
      <rects>
        <_>
          0 1 16 14 -1.</_>
        <_>
          0 8 16 7 2.</_></rects>
      <tilted>0</tilted></_>
    <_>
      <rects>
        <_>
          0 4 4 13 -1.</_>
        <_>
          2 4 2 13 2.</_></rects>
      <tilted>0</tilted></_>
    <_>
      <rects>
        <_>
          0 6 23 6 -1.</_>
        <_>
          0 9 23 3 2.</_></rects>
      <tilted>0</tilted></_>
    <_>
      <rects>
        <_>
          0 8 12 11 -1.</_>
        <_>
          4 8 4 11 3.</_></rects>
      <tilted>0</tilted></_>
    <_>
      <rects>
        <_>
          0 10 24 15 -1.</_>
        <_>
          0 15 24 5 3.</_></rects>
      <tilted>0</tilted></_>
    <_>
      <rects>
        <_>
          0 15 2 1 -1.</_>
        <_>
          1 15 1 1 2.</_></rects>
      <tilted>0</tilted></_>
    <_>
      <rects>
        <_>
          0 29 24 1 -1.</_>
        <_>
          8 29 8 1 3.</_></rects>
      <tilted>0</tilted></_>
    <_>
      <rects>
        <_>
          1 0 10 14 -1.</_>
        <_>
          1 7 10 7 2.</_></rects>
      <tilted>0</tilted></_>
    <_>
      <rects>
        <_>
          1 3 22 10 -1.</_>
        <_>
          1 8 22 5 2.</_></rects>
      <tilted>0</tilted></_>
    <_>
      <rects>
        <_>
          1 6 6 6 -1.</_>
        <_>
          3 6 2 6 3.</_></rects>
      <tilted>0</tilted></_>
    <_>
      <rects>
        <_>
          1 6 20 15 -1.</_>
        <_>
          11 6 10 15 2.</_></rects>
      <tilted>0</tilted></_>
    <_>
      <rects>
        <_>
          1 10 22 12 -1.</_>
        <_>
          1 14 22 4 3.</_></rects>
      <tilted>0</tilted></_>
    <_>
      <rects>
        <_>
          1 15 22 12 -1.</_>
        <_>
          1 19 22 4 3.</_></rects>
      <tilted>0</tilted></_>
    <_>
      <rects>
        <_>
          1 17 3 4 -1.</_>
        <_>
          2 17 1 4 3.</_></rects>
      <tilted>0</tilted></_>
    <_>
      <rects>
        <_>
          1 24 22 6 -1.</_>
        <_>
          12 24 11 6 2.</_></rects>
      <tilted>0</tilted></_>
    <_>
      <rects>
        <_>
          1 26 23 3 -1.</_>
        <_>
          1 27 23 1 3.</_></rects>
      <tilted>0</tilted></_>
    <_>
      <rects>
        <_>
          2 1 20 8 -1.</_>
        <_>
          2 1 10 4 2.</_>
        <_>
          12 5 10 4 2.</_></rects>
      <tilted>0</tilted></_>
    <_>
      <rects>
        <_>
          2 8 15 3 -1.</_>
        <_>
          7 8 5 3 3.</_></rects>
      <tilted>0</tilted></_>
    <_>
      <rects>
        <_>
          3 12 3 10 -1.</_>
        <_>
          4 12 1 10 3.</_></rects>
      <tilted>0</tilted></_>
    <_>
      <rects>
        <_>
          3 21 17 2 -1.</_>
        <_>
          3 22 17 1 2.</_></rects>
      <tilted>0</tilted></_>
    <_>
      <rects>
        <_>
          3 25 17 3 -1.</_>
        <_>
          3 26 17 1 3.</_></rects>
      <tilted>0</tilted></_>
    <_>
      <rects>
        <_>
          4 0 14 8 -1.</_>
        <_>
          4 0 7 4 2.</_>
        <_>
          11 4 7 4 2.</_></rects>
      <tilted>0</tilted></_>
    <_>
      <rects>
        <_>
          4 3 15 5 -1.</_>
        <_>
          9 3 5 5 3.</_></rects>
      <tilted>0</tilted></_>
    <_>
      <rects>
        <_>
          4 8 16 20 -1.</_>
        <_>
          4 18 16 10 2.</_></rects>
      <tilted>0</tilted></_>
    <_>
      <rects>
        <_>
          4 11 15 5 -1.</_>
        <_>
          9 11 5 5 3.</_></rects>
      <tilted>0</tilted></_>
    <_>
      <rects>
        <_>
          4 17 2 4 -1.</_>
        <_>
          4 17 1 2 2.</_>
        <_>
          5 19 1 2 2.</_></rects>
      <tilted>0</tilted></_>
    <_>
      <rects>
        <_>
          5 6 13 6 -1.</_>
        <_>
          5 8 13 2 3.</_></rects>
      <tilted>0</tilted></_>
    <_>
      <rects>
        <_>
          5 10 15 10 -1.</_>
        <_>
          10 10 5 10 3.</_></rects>
      <tilted>0</tilted></_>
    <_>
      <rects>
        <_>
          5 11 14 18 -1.</_>
        <_>
          5 17 14 6 3.</_></rects>
      <tilted>0</tilted></_>
    <_>
      <rects>
        <_>
          6 5 11 22 -1.</_>
        <_>
          6 16 11 11 2.</_></rects>
      <tilted>0</tilted></_>
    <_>
      <rects>
        <_>
          6 13 12 12 -1.</_>
        <_>
          6 13 6 6 2.</_>
        <_>
          12 19 6 6 2.</_></rects>
      <tilted>0</tilted></_>
    <_>
      <rects>
        <_>
          6 13 13 3 -1.</_>
        <_>
          6 14 13 1 3.</_></rects>
      <tilted>0</tilted></_>
    <_>
      <rects>
        <_>
          7 2 10 6 -1.</_>
        <_>
          7 5 10 3 2.</_></rects>
      <tilted>0</tilted></_>
    <_>
      <rects>
        <_>
          7 16 2 1 -1.</_>
        <_>
          8 16 1 1 2.</_></rects>
      <tilted>0</tilted></_>
    <_>
      <rects>
        <_>
          7 22 10 3 -1.</_>
        <_>
          7 23 10 1 3.</_></rects>
      <tilted>0</tilted></_>
    <_>
      <rects>
        <_>
          8 3 10 4 -1.</_>
        <_>
          8 3 5 2 2.</_>
        <_>
          13 5 5 2 2.</_></rects>
      <tilted>0</tilted></_>
    <_>
      <rects>
        <_>
          8 3 12 18 -1.</_>
        <_>
          14 3 6 18 2.</_></rects>
      <tilted>0</tilted></_>
    <_>
      <rects>
        <_>
          8 4 10 2 -1.</_>
        <_>
          8 4 5 1 2.</_>
        <_>
          13 5 5 1 2.</_></rects>
      <tilted>0</tilted></_>
    <_>
      <rects>
        <_>
          8 6 8 4 -1.</_>
        <_>
          8 8 8 2 2.</_></rects>
      <tilted>0</tilted></_>
    <_>
      <rects>
        <_>
          8 8 7 2 -1.</_>
        <_>
          8 9 7 1 2.</_></rects>
      <tilted>0</tilted></_>
    <_>
      <rects>
        <_>
          8 9 8 2 -1.</_>
        <_>
          8 10 8 1 2.</_></rects>
      <tilted>0</tilted></_>
    <_>
      <rects>
        <_>
          8 19 8 2 -1.</_>
        <_>
          8 20 8 1 2.</_></rects>
      <tilted>0</tilted></_>
    <_>
      <rects>
        <_>
          8 21 2 2 -1.</_>
        <_>
          8 21 1 1 2.</_>
        <_>
          9 22 1 1 2.</_></rects>
      <tilted>0</tilted></_>
    <_>
      <rects>
        <_>
          9 0 6 15 -1.</_>
        <_>
          9 5 6 5 3.</_></rects>
      <tilted>0</tilted></_>
    <_>
      <rects>
        <_>
          9 3 3 2 -1.</_>
        <_>
          9 4 3 1 2.</_></rects>
      <tilted>0</tilted></_>
    <_>
      <rects>
        <_>
          9 15 6 10 -1.</_>
        <_>
          9 20 6 5 2.</_></rects>
      <tilted>0</tilted></_>
    <_>
      <rects>
        <_>
          9 16 2 2 -1.</_>
        <_>
          9 16 1 1 2.</_>
        <_>
          10 17 1 1 2.</_></rects>
      <tilted>0</tilted></_>
    <_>
      <rects>
        <_>
          9 18 6 1 -1.</_>
        <_>
          11 18 2 1 3.</_></rects>
      <tilted>0</tilted></_>
    <_>
      <rects>
        <_>
          9 18 6 2 -1.</_>
        <_>
          11 18 2 2 3.</_></rects>
      <tilted>0</tilted></_>
    <_>
      <rects>
        <_>
          9 22 6 3 -1.</_>
        <_>
          9 23 6 1 3.</_></rects>
      <tilted>0</tilted></_>
    <_>
      <rects>
        <_>
          9 24 4 2 -1.</_>
        <_>
          9 24 2 1 2.</_>
        <_>
          11 25 2 1 2.</_></rects>
      <tilted>0</tilted></_>
    <_>
      <rects>
        <_>
          9 25 6 4 -1.</_>
        <_>
          11 25 2 4 3.</_></rects>
      <tilted>0</tilted></_>
    <_>
      <rects>
        <_>
          10 5 4 18 -1.</_>
        <_>
          10 14 4 9 2.</_></rects>
      <tilted>0</tilted></_>
    <_>
      <rects>
        <_>
          10 14 2 3 -1.</_>
        <_>
          10 15 2 1 3.</_></rects>
      <tilted>0</tilted></_>
    <_>
      <rects>
        <_>
          10 18 2 4 -1.</_>
        <_>
          10 18 1 2 2.</_>
        <_>
          11 20 1 2 2.</_></rects>
      <tilted>0</tilted></_>
    <_>
      <rects>
        <_>
          10 26 3 3 -1.</_>
        <_>
          10 27 3 1 3.</_></rects>
      <tilted>0</tilted></_>
    <_>
      <rects>
        <_>
          11 6 2 22 -1.</_>
        <_>
          11 17 2 11 2.</_></rects>
      <tilted>0</tilted></_>
    <_>
      <rects>
        <_>
          11 13 2 3 -1.</_>
        <_>
          11 14 2 1 3.</_></rects>
      <tilted>0</tilted></_>
    <_>
      <rects>
        <_>
          11 18 2 3 -1.</_>
        <_>
          11 19 2 1 3.</_></rects>
      <tilted>0</tilted></_>
    <_>
      <rects>
        <_>
          12 1 12 19 -1.</_>
        <_>
          16 1 4 19 3.</_></rects>
      <tilted>0</tilted></_>
    <_>
      <rects>
        <_>
          12 8 12 11 -1.</_>
        <_>
          16 8 4 11 3.</_></rects>
      <tilted>0</tilted></_>
    <_>
      <rects>
        <_>
          12 20 2 4 -1.</_>
        <_>
          12 20 1 2 2.</_>
        <_>
          13 22 1 2 2.</_></rects>
      <tilted>0</tilted></_>
    <_>
      <rects>
        <_>
          12 22 3 7 -1.</_>
        <_>
          13 22 1 7 3.</_></rects>
      <tilted>0</tilted></_>
    <_>
      <rects>
        <_>
          13 3 4 3 -1.</_>
        <_>
          13 4 4 1 3.</_></rects>
      <tilted>0</tilted></_>
    <_>
      <rects>
        <_>
          13 8 10 12 -1.</_>
        <_>
          13 8 5 6 2.</_>
        <_>
          18 14 5 6 2.</_></rects>
      <tilted>0</tilted></_>
    <_>
      <rects>
        <_>
          13 18 3 3 -1.</_>
        <_>
          13 19 3 1 3.</_></rects>
      <tilted>0</tilted></_>
    <_>
      <rects>
        <_>
          14 19 1 3 -1.</_>
        <_>
          14 20 1 1 3.</_></rects>
      <tilted>0</tilted></_>
    <_>
      <rects>
        <_>
          14 21 2 2 -1.</_>
        <_>
          14 21 1 1 2.</_>
        <_>
          15 22 1 1 2.</_></rects>
      <tilted>0</tilted></_>
    <_>
      <rects>
        <_>
          14 26 2 2 -1.</_>
        <_>
          14 27 2 1 2.</_></rects>
      <tilted>0</tilted></_>
    <_>
      <rects>
        <_>
          15 12 3 12 -1.</_>
        <_>
          15 18 3 6 2.</_></rects>
      <tilted>0</tilted></_>
    <_>
      <rects>
        <_>
          15 16 3 2 -1.</_>
        <_>
          16 16 1 2 3.</_></rects>
      <tilted>0</tilted></_>
    <_>
      <rects>
        <_>
          16 4 6 4 -1.</_>
        <_>
          16 6 6 2 2.</_></rects>
      <tilted>0</tilted></_>
    <_>
      <rects>
        <_>
          16 21 1 3 -1.</_>
        <_>
          16 22 1 1 3.</_></rects>
      <tilted>0</tilted></_>
    <_>
      <rects>
        <_>
          17 11 1 2 -1.</_>
        <_>
          17 12 1 1 2.</_></rects>
      <tilted>0</tilted></_>
    <_>
      <rects>
        <_>
          17 14 1 6 -1.</_>
        <_>
          17 16 1 2 3.</_></rects>
      <tilted>0</tilted></_>
    <_>
      <rects>
        <_>
          20 4 4 9 -1.</_>
        <_>
          22 4 2 9 2.</_></rects>
      <tilted>0</tilted></_>
    <_>
      <rects>
        <_>
          22 0 2 9 -1.</_>
        <_>
          22 3 2 3 3.</_></rects>
      <tilted>0</tilted></_>
    <_>
      <rects>
        <_>
          22 1 2 12 -1.</_>
        <_>
          23 1 1 12 2.</_></rects>
      <tilted>0</tilted></_></features></cascade>
</opencv_storage>
